<?xml version="1.0"?>
<opencv_storage>
<cascade>
  <stageType>BOOST</stageType>
  <featureType>HAAR</featureType>
  <height>24</height>
  <width>24</width>
  <stageParams>
    <boostType>GAB</boostType>
    <minHitRate>9.9500000476837158e-01</minHitRate>
    <maxFalseAlarm>5.0000000000000000e-01</maxFalseAlarm>
    <weightTrimRate>9.4999999999999996e-01</weightTrimRate>
    <maxDepth>1</maxDepth>
    <maxWeakCount>100</maxWeakCount></stageParams>
  <featureParams>
    <maxCatCount>0</maxCatCount>
    <featSize>1</featSize>
    <mode>BASIC</mode></featureParams>
  <stageNum>5</stageNum>
  <stages>
    <!-- stage 0 -->
    <_>
      <maxWeakCount>1</maxWeakCount>
      <stageThreshold>1.</stageThreshold>
      <weakClassifiers>
        <_>
          <internalNodes>
            0 -1 1 3.6923491954803467e-01</internalNodes>
          <leafValues>
            -1. 1.</leafValues></_></weakClassifiers></_>
    <!-- stage 1 -->
    <_>
      <maxWeakCount>2</maxWeakCount>
      <stageThreshold>-2.9158079624176025e-01</stageThreshold>
      <weakClassifiers>
        <_>
          <internalNodes>
            0 -1 6 6.6971063613891602e-02</internalNodes>
          <leafValues>
            -9.8571425676345825e-01 9.0909093618392944e-01</leafValues></_>
        <_>
          <internalNodes>
            0 -1 2 7.2797320783138275e-02</internalNodes>
          <leafValues>
            -9.6976035833358765e-01 6.9413346052169800e-01</leafValues></_></weakClassifiers></_>
    <!-- stage 2 -->
    <_>
      <maxWeakCount>2</maxWeakCount>
      <stageThreshold>-3.5774460434913635e-01</stageThreshold>
      <weakClassifiers>
        <_>
          <internalNodes>
            0 -1 8 5.6536286137998104e-05</internalNodes>
          <leafValues>
            -9.1724139451980591e-01 8.8235294818878174e-01</leafValues></_>
        <_>
          <internalNodes>
            0 -1 4 2.1023675799369812e-03</internalNodes>
          <leafValues>
            -9.8420077562332153e-01 5.5949676036834717e-01</leafValues></_></weakClassifiers></_>
    <!-- stage 3 -->
    <_>
      <maxWeakCount>2</maxWeakCount>
      <stageThreshold>-3.8763704895973206e-01</stageThreshold>
      <weakClassifiers>
        <_>
          <internalNodes>
            0 -1 3 -1.9854363054037094e-02</internalNodes>
          <leafValues>
            8.5714286565780640e-01 -8.7837839126586914e-01</leafValues></_>
        <_>
          <internalNodes>
            0 -1 0 1.0076631791889668e-02</internalNodes>
          <leafValues>
            -9.8348397016525269e-01 4.9074134230613708e-01</leafValues></_></weakClassifiers></_>
    <!-- stage 4 -->
    <_>
      <maxWeakCount>2</maxWeakCount>
      <stageThreshold>-1.5014979243278503e-01</stageThreshold>
      <weakClassifiers>
        <_>
          <internalNodes>
            0 -1 5 8.4567395970225334e-03</internalNodes>
          <leafValues>
            -9.5804196596145630e-01 1.</leafValues></_>
        <_>
          <internalNodes>
            0 -1 7 -4.5440070331096649e-02</internalNodes>
          <leafValues>
            8.0789214372634888e-01 -9.8599714040756226e-01</leafValues></_></weakClassifiers></_></stages>
  <features>
    <_>
      <rects>
        <_>
          0 5 5 12 -1.</_>
        <_>
          0 9 5 4 3.</_></rects>
      <tilted>0</tilted></_>
    <_>
      <rects>
        <_>
          0 9 24 7 -1.</_>
        <_>
          8 9 8 7 3.</_></rects>
      <tilted>0</tilted></_>
    <_>
      <rects>
        <_>
          1 0 15 6 -1.</_>
        <_>
          1 3 15 3 2.</_></rects>
      <tilted>0</tilted></_>
    <_>
      <rects>
        <_>
          1 3 18 8 -1.</_>
        <_>
          1 3 9 4 2.</_>
        <_>
          10 7 9 4 2.</_></rects>
      <tilted>0</tilted></_>
    <_>
      <rects>
        <_>
          5 21 12 1 -1.</_>
        <_>
          11 21 6 1 2.</_></rects>
      <tilted>0</tilted></_>
    <_>
      <rects>
        <_>
          7 7 8 10 -1.</_>
        <_>
          7 7 4 5 2.</_>
        <_>
          11 12 4 5 2.</_></rects>
      <tilted>0</tilted></_>
    <_>
      <rects>
        <_>
          8 10 7 9 -1.</_>
        <_>
          8 13 7 3 3.</_></rects>
      <tilted>0</tilted></_>
    <_>
      <rects>
        <_>
          10 14 4 10 -1.</_>
        <_>
          10 19 4 5 2.</_></rects>
      <tilted>0</tilted></_>
    <_>
      <rects>
        <_>
          12 19 9 2 -1.</_>
        <_>
          12 20 9 1 2.</_></rects>
      <tilted>0</tilted></_></features></cascade>
</opencv_storage>
