<?xml version="1.0"?>
<opencv_storage>
<cascade>
  <stageType>BOOST</stageType>
  <featureType>HAAR</featureType>
  <height>24</height>
  <width>24</width>
  <stageParams>
    <boostType>GAB</boostType>
    <minHitRate>9.9500000476837158e-01</minHitRate>
    <maxFalseAlarm>5.0000000000000000e-01</maxFalseAlarm>
    <weightTrimRate>9.4999999999999996e-01</weightTrimRate>
    <maxDepth>1</maxDepth>
    <maxWeakCount>100</maxWeakCount></stageParams>
  <featureParams>
    <maxCatCount>0</maxCatCount>
    <featSize>1</featSize>
    <mode>BASIC</mode></featureParams>
  <stageNum>5</stageNum>
  <stages>
    <!-- stage 0 -->
    <_>
      <maxWeakCount>1</maxWeakCount>
      <stageThreshold>1.</stageThreshold>
      <weakClassifiers>
        <_>
          <internalNodes>
            0 -1 1 7.5713896751403809e-01</internalNodes>
          <leafValues>
            -1. 1.</leafValues></_></weakClassifiers></_>
    <!-- stage 1 -->
    <_>
      <maxWeakCount>3</maxWeakCount>
      <stageThreshold>-1.0948295593261719e+00</stageThreshold>
      <weakClassifiers>
        <_>
          <internalNodes>
            0 -1 5 -4.2480025440454483e-03</internalNodes>
          <leafValues>
            1. -8.8157892227172852e-01</leafValues></_>
        <_>
          <internalNodes>
            0 -1 9 3.2141877454705536e-04</internalNodes>
          <leafValues>
            -8.8696813583374023e-01 5.6347626447677612e-01</leafValues></_>
        <_>
          <internalNodes>
            0 -1 0 1.1225789785385132e-03</internalNodes>
          <leafValues>
            -8.9254802465438843e-01 6.7371755838394165e-01</leafValues></_></weakClassifiers></_>
    <!-- stage 2 -->
    <_>
      <maxWeakCount>2</maxWeakCount>
      <stageThreshold>-5.4942947626113892e-01</stageThreshold>
      <weakClassifiers>
        <_>
          <internalNodes>
            0 -1 4 2.8426818549633026e-02</internalNodes>
          <leafValues>
            2.5714287161827087e-01 -9.8473280668258667e-01</leafValues></_>
        <_>
          <internalNodes>
            0 -1 7 2.6963531970977783e-02</internalNodes>
          <leafValues>
            -8.0657231807708740e-01 9.4298416376113892e-01</leafValues></_></weakClassifiers></_>
    <!-- stage 3 -->
    <_>
      <maxWeakCount>2</maxWeakCount>
      <stageThreshold>-4.9199432134628296e-01</stageThreshold>
      <weakClassifiers>
        <_>
          <internalNodes>
            0 -1 6 8.7122980039566755e-04</internalNodes>
          <leafValues>
            -9.8529410362243652e-01 4.6666666865348816e-01</leafValues></_>
        <_>
          <internalNodes>
            0 -1 8 8.5762306116521358e-04</internalNodes>
          <leafValues>
            -9.5866101980209351e-01 6.0606122016906738e-01</leafValues></_></weakClassifiers></_>
    <!-- stage 4 -->
    <_>
      <maxWeakCount>2</maxWeakCount>
      <stageThreshold>1.3698632828891277e-02</stageThreshold>
      <weakClassifiers>
        <_>
          <internalNodes>
            0 -1 2 -1.9253925420343876e-03</internalNodes>
          <leafValues>
            -9.8611110448837280e-01 1.</leafValues></_>
        <_>
          <internalNodes>
            0 -1 3 1.9173792097717524e-03</internalNodes>
          <leafValues>
            -9.8630136251449585e-01 1.</leafValues></_></weakClassifiers></_></stages>
  <features>
    <_>
      <rects>
        <_>
          0 6 4 8 -1.</_>
        <_>
          0 6 2 4 2.</_>
        <_>
          2 10 2 4 2.</_></rects>
      <tilted>0</tilted></_>
    <_>
      <rects>
        <_>
          0 7 24 15 -1.</_>
        <_>
          8 7 8 15 3.</_></rects>
      <tilted>0</tilted></_>
    <_>
      <rects>
        <_>
          0 10 5 6 -1.</_>
        <_>
          0 13 5 3 2.</_></rects>
      <tilted>0</tilted></_>
    <_>
      <rects>
        <_>
          3 0 2 24 -1.</_>
        <_>
          3 12 2 12 2.</_></rects>
      <tilted>0</tilted></_>
    <_>
      <rects>
        <_>
          3 3 4 21 -1.</_>
        <_>
          5 3 2 21 2.</_></rects>
      <tilted>0</tilted></_>
    <_>
      <rects>
        <_>
          6 12 6 1 -1.</_>
        <_>
          8 12 2 1 3.</_></rects>
      <tilted>0</tilted></_>
    <_>
      <rects>
        <_>
          7 1 6 4 -1.</_>
        <_>
          9 1 2 4 3.</_></rects>
      <tilted>0</tilted></_>
    <_>
      <rects>
        <_>
          7 2 4 20 -1.</_>
        <_>
          7 2 2 10 2.</_>
        <_>
          9 12 2 10 2.</_></rects>
      <tilted>0</tilted></_>
    <_>
      <rects>
        <_>
          20 10 4 9 -1.</_>
        <_>
          20 13 4 3 3.</_></rects>
      <tilted>0</tilted></_>
    <_>
      <rects>
        <_>
          21 11 1 9 -1.</_>
        <_>
          21 14 1 3 3.</_></rects>
      <tilted>0</tilted></_></features></cascade>
</opencv_storage>
